<?xml version="1.0"?>
<opencv_storage>
<myhaar type_id="opencv-haar-classifier">
  <size>
    24 24</size>
  <stages>
    <_>
      <trees>
        <_>
          <_>
            <feature>
              <rects>
                <_>
                  0 0 24 12 -1.</_>
                <_>
                  6 0 12 12 2.</_></rects>
              <tilted>0</tilted></feature>
            <threshold>0.0573314800858498</threshold>
            <left_val>-0.2236821055412293</left_val>
            <right_val>0.2549622058868408</right_val></_></_>
        <_>
          <_>
            <feature>
              <rects>
                <_>
                  0 0 24 21 -1.</_>
                <_>
                  0 0 12 21 2.</_></rects>
              <tilted>0</tilted></feature>
            <threshold>-0.5061193108558655</threshold>
            <left_val>-0.6534745097160339</left_val>
            <right_val>0.0477615818381310</right_val></_></_>
        <_>
          <_>
            <feature>
              <rects>
                <_>
                  0 0 24 21 -1.</_>
                <_>
                  12 0 12 21 2.</_></rects>
              <tilted>0</tilted></feature>
            <threshold>-0.4502181112766266</threshold>
            <left_val>-0.5973066091537476</left_val>
            <right_val>0.0699869096279144</right_val></_></_>
        <_>
          <_>
            <feature>
              <rects>
                <_>
                  20 0 2 1 -1.</_>
                <_>
                  20 0 1 1 2.</_></rects>
              <tilted>0</tilted></feature>
            <threshold>3.1567509722663090e-005</threshold>
            <left_val>-0.1191487982869148</left_val>
            <right_val>0.1195873022079468</right_val></_></_>
        <_>
          <_>
            <feature>
              <rects>
                <_>
                  11 12 2 2 -1.</_>
                <_>
                  11 12 1 1 2.</_>
                <_>
                  12 13 1 1 2.</_></rects>
              <tilted>0</tilted></feature>
            <threshold>9.9149672314524651e-004</threshold>
            <left_val>-0.0918833836913109</left_val>
            <right_val>0.2692716121673584</right_val></_></_>
        <_>
          <_>
            <feature>
              <rects>
                <_>
                  10 12 4 2 -1.</_>
                <_>
                  12 12 2 1 2.</_>
                <_>
                  10 13 2 1 2.</_></rects>
              <tilted>0</tilted></feature>
            <threshold>1.3040229678153992e-003</threshold>
            <left_val>-0.1037018001079559</left_val>
            <right_val>0.2406706959009171</right_val></_></_>
        <_>
          <_>
            <feature>
              <rects>
                <_>
                  2 0 2 1 -1.</_>
                <_>
                  3 0 1 1 2.</_></rects>
              <tilted>0</tilted></feature>
            <threshold>2.9078419174766168e-005</threshold>
            <left_val>-0.1797486990690231</left_val>
            <right_val>0.1295304000377655</right_val></_></_>
        <_>
          <_>
            <feature>
              <rects>
                <_>
                  11 14 3 1 -1.</_>
                <_>
                  12 14 1 1 3.</_></rects>
              <tilted>0</tilted></feature>
            <threshold>1.0657729580998421e-003</threshold>
            <left_val>-0.0817572623491287</left_val>
            <right_val>0.1679953932762146</right_val></_></_>
        <_>
          <_>
            <feature>
              <rects>
                <_>
                  6 7 4 3 -1.</_>
                <_>
                  6 7 2 3 2.</_></rects>
              <tilted>1</tilted></feature>
            <threshold>0.0134302200749516</threshold>
            <left_val>-0.0390542112290859</left_val>
            <right_val>0.3263491988182068</right_val></_></_>
        <_>
          <_>
            <feature>
              <rects>
                <_>
                  18 7 4 8 -1.</_>
                <_>
                  16 9 4 4 2.</_></rects>
              <tilted>1</tilted></feature>
            <threshold>0.0185415893793106</threshold>
            <left_val>-0.0499906390905380</left_val>
            <right_val>0.1358679980039597</right_val></_></_>
        <_>
          <_>
            <feature>
              <rects>
                <_>
                  4 12 10 2 -1.</_>
                <_>
                  9 12 5 2 2.</_></rects>
              <tilted>0</tilted></feature>
            <threshold>-5.9747798368334770e-003</threshold>
            <left_val>0.2162752002477646</left_val>
            <right_val>-0.0908389389514923</right_val></_></_>
        <_>
          <_>
            <feature>
              <rects>
                <_>
                  4 17 16 4 -1.</_>
                <_>
                  4 19 16 2 2.</_></rects>
              <tilted>0</tilted></feature>
            <threshold>-0.0205100793391466</threshold>
            <left_val>0.2377482950687408</left_val>
            <right_val>-0.0848837569355965</right_val></_></_>
        <_>
          <_>
            <feature>
              <rects>
                <_>
                  4 0 2 1 -1.</_>
                <_>
                  5 0 1 1 2.</_></rects>
              <tilted>0</tilted></feature>
            <threshold>-5.0184980500489473e-004</threshold>
            <left_val>-0.2657949924468994</left_val>
            <right_val>0.0760344862937927</right_val></_></_>
        <_>
          <_>
            <feature>
              <rects>
                <_>
                  11 8 3 9 -1.</_>
                <_>
                  11 11 3 3 3.</_></rects>
              <tilted>0</tilted></feature>
            <threshold>6.5305610187351704e-003</threshold>
            <left_val>-0.0739456564188004</left_val>
            <right_val>0.1410461962223053</right_val></_></_>
        <_>
          <_>
            <feature>
              <rects>
                <_>
                  6 0 10 12 -1.</_>
                <_>
                  6 4 10 4 3.</_></rects>
              <tilted>0</tilted></feature>
            <threshold>0.0594667196273804</threshold>
            <left_val>-0.0593854598701000</left_val>
            <right_val>0.2695099115371704</right_val></_></_>
        <_>
          <_>
            <feature>
              <rects>
                <_>
                  0 16 24 5 -1.</_>
                <_>
                  6 16 12 5 2.</_></rects>
              <tilted>0</tilted></feature>
            <threshold>0.1007888987660408</threshold>
            <left_val>-0.0473570302128792</left_val>
            <right_val>0.3463707864284515</right_val></_></_>
        <_>
          <_>
            <feature>
              <rects>
                <_>
                  7 11 3 12 -1.</_>
                <_>
                  8 15 1 4 9.</_></rects>
              <tilted>0</tilted></feature>
            <threshold>-0.0104809002950788</threshold>
            <left_val>0.1690783947706223</left_val>
            <right_val>-0.1001835986971855</right_val></_></_>
        <_>
          <_>
            <feature>
              <rects>
                <_>
                  16 3 2 2 -1.</_>
                <_>
                  17 3 1 1 2.</_>
                <_>
                  16 4 1 1 2.</_></rects>
              <tilted>0</tilted></feature>
            <threshold>3.1228449661284685e-003</threshold>
            <left_val>0.0110392495989800</left_val>
            <right_val>-0.5736452937126160</right_val></_></_>
        <_>
          <_>
            <feature>
              <rects>
                <_>
                  4 2 2 15 -1.</_>
                <_>
                  4 7 2 5 3.</_></rects>
              <tilted>0</tilted></feature>
            <threshold>-0.0195659101009369</threshold>
            <left_val>0.2521497011184692</left_val>
            <right_val>-0.0623349994421005</right_val></_></_>
        <_>
          <_>
            <feature>
              <rects>
                <_>
                  16 3 2 2 -1.</_>
                <_>
                  17 3 1 1 2.</_>
                <_>
                  16 4 1 1 2.</_></rects>
              <tilted>0</tilted></feature>
            <threshold>-2.0829569548368454e-003</threshold>
            <left_val>-0.1603318005800247</left_val>
            <right_val>0.0112307202070951</right_val></_></_>
        <_>
          <_>
            <feature>
              <rects>
                <_>
                  5 11 1 2 -1.</_>
                <_>
                  5 12 1 1 2.</_></rects>
              <tilted>0</tilted></feature>
            <threshold>-6.7478790879249573e-004</threshold>
            <left_val>0.1942805945873261</left_val>
            <right_val>-0.0819294974207878</right_val></_></_>
        <_>
          <_>
            <feature>
              <rects>
                <_>
                  17 17 3 4 -1.</_>
                <_>
                  16 18 3 2 2.</_></rects>
              <tilted>1</tilted></feature>
            <threshold>-4.9886000342667103e-003</threshold>
            <left_val>0.1301708072423935</left_val>
            <right_val>-0.0510222911834717</right_val></_></_>
        <_>
          <_>
            <feature>
              <rects>
                <_>
                  6 3 2 2 -1.</_>
                <_>
                  6 3 1 1 2.</_>
                <_>
                  7 4 1 1 2.</_></rects>
              <tilted>0</tilted></feature>
            <threshold>1.7863250104710460e-003</threshold>
            <left_val>0.0359993502497673</left_val>
            <right_val>-0.4937961995601654</right_val></_></_>
        <_>
          <_>
            <feature>
              <rects>
                <_>
                  17 17 3 4 -1.</_>
                <_>
                  16 18 3 2 2.</_></rects>
              <tilted>1</tilted></feature>
            <threshold>0.0100477496162057</threshold>
            <left_val>-0.0276903808116913</left_val>
            <right_val>0.1428167968988419</right_val></_></_>
        <_>
          <_>
            <feature>
              <rects>
                <_>
                  7 17 4 3 -1.</_>
                <_>
                  8 18 2 3 2.</_></rects>
              <tilted>1</tilted></feature>
            <threshold>7.1056988090276718e-003</threshold>
            <left_val>-0.0659143328666687</left_val>
            <right_val>0.2495498061180115</right_val></_></_>
        <_>
          <_>
            <feature>
              <rects>
                <_>
                  17 0 3 1 -1.</_>
                <_>
                  18 0 1 1 3.</_></rects>
              <tilted>0</tilted></feature>
            <threshold>4.4635520316660404e-003</threshold>
            <left_val>0.0132758803665638</left_val>
            <right_val>-0.6332839727401733</right_val></_></_>
        <_>
          <_>
            <feature>
              <rects>
                <_>
                  6 12 4 1 -1.</_>
                <_>
                  7 13 2 1 2.</_></rects>
              <tilted>1</tilted></feature>
            <threshold>-3.4528959076851606e-003</threshold>
            <left_val>0.2463517040014267</left_val>
            <right_val>-0.0589525997638702</right_val></_></_>
        <_>
          <_>
            <feature>
              <rects>
                <_>
                  22 0 2 1 -1.</_>
                <_>
                  22 0 1 1 2.</_></rects>
              <tilted>0</tilted></feature>
            <threshold>3.1387229682877660e-005</threshold>
            <left_val>-0.1347074955701828</left_val>
            <right_val>0.1158732995390892</right_val></_></_>
        <_>
          <_>
            <feature>
              <rects>
                <_>
                  6 9 3 14 -1.</_>
                <_>
                  6 16 3 7 2.</_></rects>
              <tilted>0</tilted></feature>
            <threshold>-0.0235727503895760</threshold>
            <left_val>0.1638929992914200</left_val>
            <right_val>-0.0926580280065537</right_val></_></_>
        <_>
          <_>
            <feature>
              <rects>
                <_>
                  15 5 1 8 -1.</_>
                <_>
                  15 5 1 4 2.</_></rects>
              <tilted>1</tilted></feature>
            <threshold>0.0141903404146433</threshold>
            <left_val>-0.0244042593985796</left_val>
            <right_val>0.1171227991580963</right_val></_></_>
        <_>
          <_>
            <feature>
              <rects>
                <_>
                  9 5 8 1 -1.</_>
                <_>
                  9 5 4 1 2.</_></rects>
              <tilted>1</tilted></feature>
            <threshold>-0.0142485499382019</threshold>
            <left_val>0.3031828105449677</left_val>
            <right_val>-0.0497243888676167</right_val></_></_>
        <_>
          <_>
            <feature>
              <rects>
                <_>
                  12 7 2 4 -1.</_>
                <_>
                  12 7 2 2 2.</_></rects>
              <tilted>1</tilted></feature>
            <threshold>0.0253695696592331</threshold>
            <left_val>8.5769919678568840e-003</left_val>
            <right_val>-0.4102452993392944</right_val></_></_>
        <_>
          <_>
            <feature>
              <rects>
                <_>
                  12 7 4 2 -1.</_>
                <_>
                  12 7 2 2 2.</_></rects>
              <tilted>1</tilted></feature>
            <threshold>4.9252668395638466e-003</threshold>
            <left_val>-0.0974166691303253</left_val>
            <right_val>0.1758624017238617</right_val></_></_>
        <_>
          <_>
            <feature>
              <rects>
                <_>
                  17 0 3 1 -1.</_>
                <_>
                  18 0 1 1 3.</_></rects>
              <tilted>0</tilted></feature>
            <threshold>-7.5378391193225980e-004</threshold>
            <left_val>-0.1571116000413895</left_val>
            <right_val>0.0550121404230595</right_val></_></_>
        <_>
          <_>
            <feature>
              <rects>
                <_>
                  6 0 6 2 -1.</_>
                <_>
                  6 1 6 1 2.</_></rects>
              <tilted>0</tilted></feature>
            <threshold>-4.8804380930960178e-003</threshold>
            <left_val>0.3006008863449097</left_val>
            <right_val>-0.0521467514336109</right_val></_></_>
        <_>
          <_>
            <feature>
              <rects>
                <_>
                  14 16 6 3 -1.</_>
                <_>
                  16 16 2 3 3.</_></rects>
              <tilted>0</tilted></feature>
            <threshold>-4.3246839195489883e-003</threshold>
            <left_val>0.0928313732147217</left_val>
            <right_val>-0.0366997197270393</right_val></_></_>
        <_>
          <_>
            <feature>
              <rects>
                <_>
                  4 16 6 3 -1.</_>
                <_>
                  6 16 2 3 3.</_></rects>
              <tilted>0</tilted></feature>
            <threshold>3.5078621003776789e-003</threshold>
            <left_val>-0.0866744369268417</left_val>
            <right_val>0.1579286009073257</right_val></_></_>
        <_>
          <_>
            <feature>
              <rects>
                <_>
                  4 7 20 1 -1.</_>
                <_>
                  9 7 10 1 2.</_></rects>
              <tilted>0</tilted></feature>
            <threshold>-7.5682462193071842e-003</threshold>
            <left_val>0.1183924973011017</left_val>
            <right_val>-0.0266201701015234</right_val></_></_>
        <_>
          <_>
            <feature>
              <rects>
                <_>
                  6 2 10 4 -1.</_>
                <_>
                  6 2 10 2 2.</_></rects>
              <tilted>1</tilted></feature>
            <threshold>-0.0622734986245632</threshold>
            <left_val>-0.8551685214042664</left_val>
            <right_val>0.0158666707575321</right_val></_></_>
        <_>
          <_>
            <feature>
              <rects>
                <_>
                  4 7 20 1 -1.</_>
                <_>
                  9 7 10 1 2.</_></rects>
              <tilted>0</tilted></feature>
            <threshold>0.0288222301751375</threshold>
            <left_val>-0.0113475304096937</left_val>
            <right_val>0.2892741858959198</right_val></_></_>
        <_>
          <_>
            <feature>
              <rects>
                <_>
                  0 7 20 1 -1.</_>
                <_>
                  5 7 10 1 2.</_></rects>
              <tilted>0</tilted></feature>
            <threshold>-6.5220640972256660e-003</threshold>
            <left_val>0.2228960990905762</left_val>
            <right_val>-0.0624269284307957</right_val></_></_>
        <_>
          <_>
            <feature>
              <rects>
                <_>
                  21 1 2 4 -1.</_>
                <_>
                  21 1 1 4 2.</_></rects>
              <tilted>0</tilted></feature>
            <threshold>2.0526659500319511e-004</threshold>
            <left_val>-0.0786336436867714</left_val>
            <right_val>0.0726165175437927</right_val></_></_>
        <_>
          <_>
            <feature>
              <rects>
                <_>
                  1 1 2 4 -1.</_>
                <_>
                  2 1 1 4 2.</_></rects>
              <tilted>0</tilted></feature>
            <threshold>-1.0810440289787948e-004</threshold>
            <left_val>-0.1590104997158051</left_val>
            <right_val>0.0915692225098610</right_val></_></_>
        <_>
          <_>
            <feature>
              <rects>
                <_>
                  21 1 3 15 -1.</_>
                <_>
                  22 1 1 15 3.</_></rects>
              <tilted>0</tilted></feature>
            <threshold>-0.0505146384239197</threshold>
            <left_val>0.9351550936698914</left_val>
            <right_val>-3.5545029677450657e-003</right_val></_></_>
        <_>
          <_>
            <feature>
              <rects>
                <_>
                  0 1 3 15 -1.</_>
                <_>
                  1 1 1 15 3.</_></rects>
              <tilted>0</tilted></feature>
            <threshold>7.2648660279810429e-003</threshold>
            <left_val>-0.0638690069317818</left_val>
            <right_val>0.2432931065559387</right_val></_></_>
        <_>
          <_>
            <feature>
              <rects>
                <_>
                  8 0 9 10 -1.</_>
                <_>
                  8 5 9 5 2.</_></rects>
              <tilted>0</tilted></feature>
            <threshold>0.0319537818431854</threshold>
            <left_val>-0.0666715875267982</left_val>
            <right_val>0.1752288937568665</right_val></_></_>
        <_>
          <_>
            <feature>
              <rects>
                <_>
                  0 10 3 10 -1.</_>
                <_>
                  1 10 1 10 3.</_></rects>
              <tilted>0</tilted></feature>
            <threshold>-5.6348987855017185e-003</threshold>
            <left_val>0.2131597995758057</left_val>
            <right_val>-0.0648821368813515</right_val></_></_>
        <_>
          <_>
            <feature>
              <rects>
                <_>
                  22 0 2 1 -1.</_>
                <_>
                  22 0 1 1 2.</_></rects>
              <tilted>0</tilted></feature>
            <threshold>1.1028070002794266e-003</threshold>
            <left_val>0.0231962893158197</left_val>
            <right_val>-0.1223836019635201</right_val></_></_>
        <_>
          <_>
            <feature>
              <rects>
                <_>
                  5 5 4 8 -1.</_>
                <_>
                  6 5 2 8 2.</_></rects>
              <tilted>0</tilted></feature>
            <threshold>-0.0135063901543617</threshold>
            <left_val>-0.5732451081275940</left_val>
            <right_val>0.0228616800159216</right_val></_></_>
        <_>
          <_>
            <feature>
              <rects>
                <_>
                  15 4 2 14 -1.</_>
                <_>
                  15 4 1 14 2.</_></rects>
              <tilted>0</tilted></feature>
            <threshold>1.8445040332153440e-003</threshold>
            <left_val>-0.0451771505177021</left_val>
            <right_val>0.0547233000397682</right_val></_></_>
        <_>
          <_>
            <feature>
              <rects>
                <_>
                  7 4 2 14 -1.</_>
                <_>
                  8 4 1 14 2.</_></rects>
              <tilted>0</tilted></feature>
            <threshold>-8.7705589830875397e-003</threshold>
            <left_val>-0.3754889965057373</left_val>
            <right_val>0.0361067615449429</right_val></_></_>
        <_>
          <_>
            <feature>
              <rects>
                <_>
                  12 2 3 12 -1.</_>
                <_>
                  12 6 3 4 3.</_></rects>
              <tilted>0</tilted></feature>
            <threshold>-0.0233456008136272</threshold>
            <left_val>0.1370128989219666</left_val>
            <right_val>-0.0277827307581902</right_val></_></_>
        <_>
          <_>
            <feature>
              <rects>
                <_>
                  12 15 3 1 -1.</_>
                <_>
                  13 16 1 1 3.</_></rects>
              <tilted>1</tilted></feature>
            <threshold>-1.8841739511117339e-003</threshold>
            <left_val>0.1714092940092087</left_val>
            <right_val>-0.0756383836269379</right_val></_></_>
        <_>
          <_>
            <feature>
              <rects>
                <_>
                  17 0 3 1 -1.</_>
                <_>
                  18 0 1 1 3.</_></rects>
              <tilted>0</tilted></feature>
            <threshold>1.7360999481752515e-004</threshold>
            <left_val>0.0669721066951752</left_val>
            <right_val>-0.1219234988093376</right_val></_></_>
        <_>
          <_>
            <feature>
              <rects>
                <_>
                  3 20 3 1 -1.</_>
                <_>
                  4 20 1 1 3.</_></rects>
              <tilted>0</tilted></feature>
            <threshold>-3.3392079640179873e-003</threshold>
            <left_val>-0.4768472015857697</left_val>
            <right_val>0.0278191007673740</right_val></_></_>
        <_>
          <_>
            <feature>
              <rects>
                <_>
                  19 0 1 6 -1.</_>
                <_>
                  19 2 1 2 3.</_></rects>
              <tilted>0</tilted></feature>
            <threshold>-8.1739127635955811e-003</threshold>
            <left_val>-0.3548972010612488</left_val>
            <right_val>7.5225359760224819e-003</right_val></_></_>
        <_>
          <_>
            <feature>
              <rects>
                <_>
                  3 14 2 2 -1.</_>
                <_>
                  4 14 1 2 2.</_></rects>
              <tilted>0</tilted></feature>
            <threshold>4.9890758236870170e-004</threshold>
            <left_val>-0.1016540974378586</left_val>
            <right_val>0.1206319034099579</right_val></_></_>
        <_>
          <_>
            <feature>
              <rects>
                <_>
                  13 16 5 2 -1.</_>
                <_>
                  13 17 5 1 2.</_></rects>
              <tilted>0</tilted></feature>
            <threshold>-1.8856229726225138e-003</threshold>
            <left_val>0.0669129714369774</left_val>
            <right_val>-0.0320991910994053</right_val></_></_>
        <_>
          <_>
            <feature>
              <rects>
                <_>
                  6 16 5 2 -1.</_>
                <_>
                  6 17 5 1 2.</_></rects>
              <tilted>0</tilted></feature>
            <threshold>-0.0121173495426774</threshold>
            <left_val>-0.9541457891464233</left_val>
            <right_val>0.0132447397336364</right_val></_></_>
        <_>
          <_>
            <feature>
              <rects>
                <_>
                  14 8 2 14 -1.</_>
                <_>
                  15 8 1 7 2.</_>
                <_>
                  14 15 1 7 2.</_></rects>
              <tilted>0</tilted></feature>
            <threshold>-7.8809447586536407e-004</threshold>
            <left_val>0.0579401291906834</left_val>
            <right_val>-0.0573735199868679</right_val></_></_>
        <_>
          <_>
            <feature>
              <rects>
                <_>
                  8 8 2 14 -1.</_>
                <_>
                  8 8 1 7 2.</_>
                <_>
                  9 15 1 7 2.</_></rects>
              <tilted>0</tilted></feature>
            <threshold>7.1301148273050785e-003</threshold>
            <left_val>-0.0465166904032230</left_val>
            <right_val>0.2826791107654572</right_val></_></_>
        <_>
          <_>
            <feature>
              <rects>
                <_>
                  12 13 4 1 -1.</_>
                <_>
                  13 13 2 1 2.</_></rects>
              <tilted>0</tilted></feature>
            <threshold>1.4139770064502954e-003</threshold>
            <left_val>-0.0337803587317467</left_val>
            <right_val>0.1175799965858460</right_val></_></_>
        <_>
          <_>
            <feature>
              <rects>
                <_>
                  4 0 3 1 -1.</_>
                <_>
                  5 0 1 1 3.</_></rects>
              <tilted>0</tilted></feature>
            <threshold>2.1164359350223094e-004</threshold>
            <left_val>0.0849018022418022</left_val>
            <right_val>-0.1457643061876297</right_val></_></_>
        <_>
          <_>
            <feature>
              <rects>
                <_>
                  19 16 1 3 -1.</_>
                <_>
                  19 17 1 1 3.</_></rects>
              <tilted>0</tilted></feature>
            <threshold>6.0598421841859818e-003</threshold>
            <left_val>3.2892189919948578e-003</left_val>
            <right_val>-0.7915183901786804</right_val></_></_>
        <_>
          <_>
            <feature>
              <rects>
                <_>
                  4 16 1 3 -1.</_>
                <_>
                  4 17 1 1 3.</_></rects>
              <tilted>0</tilted></feature>
            <threshold>4.2700078338384628e-003</threshold>
            <left_val>0.0198623090982437</left_val>
            <right_val>-0.6067625880241394</right_val></_></_>
        <_>
          <_>
            <feature>
              <rects>
                <_>
                  22 0 2 1 -1.</_>
                <_>
                  22 0 1 1 2.</_></rects>
              <tilted>0</tilted></feature>
            <threshold>2.9462310485541821e-003</threshold>
            <left_val>-0.0132960099726915</left_val>
            <right_val>0.2435974925756455</right_val></_></_>
        <_>
          <_>
            <feature>
              <rects>
                <_>
                  0 0 2 1 -1.</_>
                <_>
                  1 0 1 1 2.</_></rects>
              <tilted>0</tilted></feature>
            <threshold>-9.2950736870989203e-005</threshold>
            <left_val>-0.1632224023342133</left_val>
            <right_val>0.0780462175607681</right_val></_></_>
        <_>
          <_>
            <feature>
              <rects>
                <_>
                  19 12 3 3 -1.</_>
                <_>
                  19 13 3 1 3.</_></rects>
              <tilted>0</tilted></feature>
            <threshold>1.2149669928476214e-003</threshold>
            <left_val>-0.0509228296577930</left_val>
            <right_val>0.0932969972491264</right_val></_></_>
        <_>
          <_>
            <feature>
              <rects>
                <_>
                  0 9 10 12 -1.</_>
                <_>
                  5 9 5 12 2.</_></rects>
              <tilted>0</tilted></feature>
            <threshold>-0.0561164803802967</threshold>
            <left_val>0.2618579864501953</left_val>
            <right_val>-0.0501860305666924</right_val></_></_>
        <_>
          <_>
            <feature>
              <rects>
                <_>
                  13 10 3 6 -1.</_>
                <_>
                  14 12 1 2 9.</_></rects>
              <tilted>0</tilted></feature>
            <threshold>-5.3211431950330734e-003</threshold>
            <left_val>0.0800380408763886</left_val>
            <right_val>-0.0415930412709713</right_val></_></_>
        <_>
          <_>
            <feature>
              <rects>
                <_>
                  8 10 3 6 -1.</_>
                <_>
                  9 12 1 2 9.</_></rects>
              <tilted>0</tilted></feature>
            <threshold>0.0357710905373096</threshold>
            <left_val>-0.0216287598013878</left_val>
            <right_val>0.5832564830780029</right_val></_></_>
        <_>
          <_>
            <feature>
              <rects>
                <_>
                  15 5 1 3 -1.</_>
                <_>
                  15 6 1 1 3.</_></rects>
              <tilted>0</tilted></feature>
            <threshold>4.7886050306260586e-003</threshold>
            <left_val>0.0143521502614021</left_val>
            <right_val>-0.5954313874244690</right_val></_></_>
        <_>
          <_>
            <feature>
              <rects>
                <_>
                  1 20 2 3 -1.</_>
                <_>
                  1 21 2 1 3.</_></rects>
              <tilted>0</tilted></feature>
            <threshold>-1.1351640569046140e-003</threshold>
            <left_val>0.1575994938611984</left_val>
            <right_val>-0.0812327489256859</right_val></_></_>
        <_>
          <_>
            <feature>
              <rects>
                <_>
                  18 13 2 7 -1.</_>
                <_>
                  18 13 1 7 2.</_></rects>
              <tilted>0</tilted></feature>
            <threshold>-0.0115432199090719</threshold>
            <left_val>-0.4928042888641357</left_val>
            <right_val>0.0133352596312761</right_val></_></_>
        <_>
          <_>
            <feature>
              <rects>
                <_>
                  9 19 2 3 -1.</_>
                <_>
                  9 20 2 1 3.</_></rects>
              <tilted>0</tilted></feature>
            <threshold>9.0554188936948776e-003</threshold>
            <left_val>0.0130181899294257</left_val>
            <right_val>-0.8147683739662170</right_val></_></_>
        <_>
          <_>
            <feature>
              <rects>
                <_>
                  11 23 3 1 -1.</_>
                <_>
                  12 23 1 1 3.</_></rects>
              <tilted>0</tilted></feature>
            <threshold>-6.2537437770515680e-004</threshold>
            <left_val>0.0471191518008709</left_val>
            <right_val>-0.0322671383619308</right_val></_></_>
        <_>
          <_>
            <feature>
              <rects>
                <_>
                  10 23 3 1 -1.</_>
                <_>
                  11 23 1 1 3.</_></rects>
              <tilted>0</tilted></feature>
            <threshold>-1.6273959772661328e-003</threshold>
            <left_val>0.2231031954288483</left_val>
            <right_val>-0.0597876198589802</right_val></_></_>
        <_>
          <_>
            <feature>
              <rects>
                <_>
                  15 5 1 3 -1.</_>
                <_>
                  15 6 1 1 3.</_></rects>
              <tilted>0</tilted></feature>
            <threshold>-1.0476909665158018e-004</threshold>
            <left_val>0.0758365914225578</left_val>
            <right_val>-0.0664140731096268</right_val></_></_>
        <_>
          <_>
            <feature>
              <rects>
                <_>
                  8 5 1 3 -1.</_>
                <_>
                  8 6 1 1 3.</_></rects>
              <tilted>0</tilted></feature>
            <threshold>-4.1722301393747330e-003</threshold>
            <left_val>-0.7148178815841675</left_val>
            <right_val>0.0190954599529505</right_val></_></_>
        <_>
          <_>
            <feature>
              <rects>
                <_>
                  20 13 4 1 -1.</_>
                <_>
                  21 13 2 1 2.</_></rects>
              <tilted>0</tilted></feature>
            <threshold>-1.0208969470113516e-003</threshold>
            <left_val>0.1134551987051964</left_val>
            <right_val>-0.0454262495040894</right_val></_></_>
        <_>
          <_>
            <feature>
              <rects>
                <_>
                  2 11 19 2 -1.</_>
                <_>
                  2 12 19 1 2.</_></rects>
              <tilted>0</tilted></feature>
            <threshold>-0.0116379102692008</threshold>
            <left_val>0.2725546956062317</left_val>
            <right_val>-0.0448762588202953</right_val></_></_>
        <_>
          <_>
            <feature>
              <rects>
                <_>
                  17 1 4 22 -1.</_>
                <_>
                  17 1 2 22 2.</_></rects>
              <tilted>0</tilted></feature>
            <threshold>4.5397239737212658e-003</threshold>
            <left_val>-0.0823395997285843</left_val>
            <right_val>0.0792798027396202</right_val></_></_>
        <_>
          <_>
            <feature>
              <rects>
                <_>
                  4 19 4 5 -1.</_>
                <_>
                  5 19 2 5 2.</_></rects>
              <tilted>0</tilted></feature>
            <threshold>-0.0115082198753953</threshold>
            <left_val>-0.5112224221229553</left_val>
            <right_val>0.0239294897764921</right_val></_></_>
        <_>
          <_>
            <feature>
              <rects>
                <_>
                  16 9 4 10 -1.</_>
                <_>
                  16 9 4 5 2.</_></rects>
              <tilted>1</tilted></feature>
            <threshold>-0.0750674083828926</threshold>
            <left_val>0.2202696055173874</left_val>
            <right_val>-0.0291903298348188</right_val></_></_>
        <_>
          <_>
            <feature>
              <rects>
                <_>
                  8 9 10 4 -1.</_>
                <_>
                  8 9 5 4 2.</_></rects>
              <tilted>1</tilted></feature>
            <threshold>-0.1071093976497650</threshold>
            <left_val>-0.6578614115715027</left_val>
            <right_val>0.0218511298298836</right_val></_></_>
        <_>
          <_>
            <feature>
              <rects>
                <_>
                  13 0 10 1 -1.</_>
                <_>
                  13 0 5 1 2.</_></rects>
              <tilted>0</tilted></feature>
            <threshold>-2.4720279034227133e-003</threshold>
            <left_val>-0.1140294969081879</left_val>
            <right_val>0.0324900597333908</right_val></_></_>
        <_>
          <_>
            <feature>
              <rects>
                <_>
                  0 13 4 1 -1.</_>
                <_>
                  1 13 2 1 2.</_></rects>
              <tilted>0</tilted></feature>
            <threshold>-1.9998881034553051e-003</threshold>
            <left_val>0.2766667008399963</left_val>
            <right_val>-0.0458500608801842</right_val></_></_></trees>
      <stage_threshold>-0.8878567218780518</stage_threshold>
      <parent>-1</parent>
      <next>-1</next></_>
    <_>
      <trees>
        <_>
          <_>
            <feature>
              <rects>
                <_>
                  0 0 12 1 -1.</_>
                <_>
                  6 0 6 1 2.</_></rects>
              <tilted>0</tilted></feature>
            <threshold>-1.4365979586727917e-004</threshold>
            <left_val>-0.2283437997102737</left_val>
            <right_val>0.1059745997190476</right_val></_></_>
        <_>
          <_>
            <feature>
              <rects>
                <_>
                  12 12 1 4 -1.</_>
                <_>
                  12 14 1 2 2.</_></rects>
              <tilted>0</tilted></feature>
            <threshold>-1.5901010483503342e-003</threshold>
            <left_val>0.0804440900683403</left_val>
            <right_val>-0.0397188998758793</right_val></_></_>
        <_>
          <_>
            <feature>
              <rects>
                <_>
                  11 13 2 2 -1.</_>
                <_>
                  11 13 1 1 2.</_>
                <_>
                  12 14 1 1 2.</_></rects>
              <tilted>0</tilted></feature>
            <threshold>1.3125720433890820e-003</threshold>
            <left_val>-0.0600187107920647</left_val>
            <right_val>0.2374155968427658</right_val></_></_>
        <_>
          <_>
            <feature>
              <rects>
                <_>
                  21 0 2 1 -1.</_>
                <_>
                  21 0 1 1 2.</_></rects>
              <tilted>0</tilted></feature>
            <threshold>2.5933139113476500e-005</threshold>
            <left_val>-0.1486131995916367</left_val>
            <right_val>0.1235152035951614</right_val></_></_>
        <_>
          <_>
            <feature>
              <rects>
                <_>
                  5 0 2 1 -1.</_>
                <_>
                  6 0 1 1 2.</_></rects>
              <tilted>0</tilted></feature>
            <threshold>2.8171969461254776e-004</threshold>
            <left_val>0.1361377984285355</left_val>
            <right_val>-0.1378480046987534</right_val></_></_>
        <_>
          <_>
            <feature>
              <rects>
                <_>
                  17 0 4 1 -1.</_>
                <_>
                  18 0 2 1 2.</_></rects>
              <tilted>0</tilted></feature>
            <threshold>-3.7954649887979031e-003</threshold>
            <left_val>-0.6219772100448608</left_val>
            <right_val>-6.9033708423376083e-003</right_val></_></_>
        <_>
          <_>
            <feature>
              <rects>
                <_>
                  3 0 4 1 -1.</_>
                <_>
                  4 0 2 1 2.</_></rects>
              <tilted>0</tilted></feature>
            <threshold>2.2053459542803466e-004</threshold>
            <left_val>0.1036513000726700</left_val>
            <right_val>-0.1613442003726959</right_val></_></_>
        <_>
          <_>
            <feature>
              <rects>
                <_>
                  18 6 2 3 -1.</_>
                <_>
                  18 6 1 3 2.</_></rects>
              <tilted>1</tilted></feature>
            <threshold>3.2825979869812727e-003</threshold>
            <left_val>-0.0154013503342867</left_val>
            <right_val>0.1163918972015381</right_val></_></_>
        <_>
          <_>
            <feature>
              <rects>
                <_>
                  6 6 3 2 -1.</_>
                <_>
                  6 6 3 1 2.</_></rects>
              <tilted>1</tilted></feature>
            <threshold>2.5009079836308956e-003</threshold>
            <left_val>-0.0994177237153053</left_val>
            <right_val>0.1716580986976624</right_val></_></_>
        <_>
          <_>
            <feature>
              <rects>
                <_>
                  12 13 1 2 -1.</_>
                <_>
                  12 14 1 1 2.</_></rects>
              <tilted>0</tilted></feature>
            <threshold>3.2403110526502132e-003</threshold>
            <left_val>8.1812227144837379e-003</left_val>
            <right_val>-0.2215127944946289</right_val></_></_>
        <_>
          <_>
            <feature>
              <rects>
                <_>
                  11 13 1 2 -1.</_>
                <_>
                  11 14 1 1 2.</_></rects>
              <tilted>0</tilted></feature>
            <threshold>7.1339251007884741e-004</threshold>
            <left_val>-0.0900532826781273</left_val>
            <right_val>0.2174682021141052</right_val></_></_>
        <_>
          <_>
            <feature>
              <rects>
                <_>
                  10 11 4 1 -1.</_>
                <_>
                  11 11 2 1 2.</_></rects>
              <tilted>0</tilted></feature>
            <threshold>1.4006820274516940e-003</threshold>
            <left_val>-0.0559328384697437</left_val>
            <right_val>0.2198885977268219</right_val></_></_>
        <_>
          <_>
            <feature>
              <rects>
                <_>
                  10 10 3 3 -1.</_>
                <_>
                  11 11 1 1 9.</_></rects>
              <tilted>0</tilted></feature>
            <threshold>-6.1426148749887943e-003</threshold>
            <left_val>0.2277588993310928</left_val>
            <right_val>-0.0615283809602261</right_val></_></_>
        <_>
          <_>
            <feature>
              <rects>
                <_>
                  18 0 3 1 -1.</_>
                <_>
                  19 0 1 1 3.</_></rects>
              <tilted>0</tilted></feature>
            <threshold>-9.2189217684790492e-004</threshold>
            <left_val>-0.1761641949415207</left_val>
            <right_val>0.0412353686988354</right_val></_></_>
        <_>
          <_>
            <feature>
              <rects>
                <_>
                  5 7 14 8 -1.</_>
                <_>
                  5 9 14 4 2.</_></rects>
              <tilted>0</tilted></feature>
            <threshold>0.0427553802728653</threshold>
            <left_val>-0.0447530485689640</left_val>
            <right_val>0.3132599890232086</right_val></_></_>
        <_>
          <_>
            <feature>
              <rects>
                <_>
                  20 2 4 11 -1.</_>
                <_>
                  20 2 2 11 2.</_></rects>
              <tilted>0</tilted></feature>
            <threshold>0.0102219004184008</threshold>
            <left_val>-0.0795564800500870</left_val>
            <right_val>0.1571588069200516</right_val></_></_>
        <_>
          <_>
            <feature>
              <rects>
                <_>
                  0 2 4 11 -1.</_>
                <_>
                  2 2 2 11 2.</_></rects>
              <tilted>0</tilted></feature>
            <threshold>4.2818849906325340e-003</threshold>
            <left_val>-0.1155607998371124</left_val>
            <right_val>0.1091395020484924</right_val></_></_>
        <_>
          <_>
            <feature>
              <rects>
                <_>
                  21 5 1 3 -1.</_>
                <_>
                  21 6 1 1 3.</_></rects>
              <tilted>0</tilted></feature>
            <threshold>5.2634868770837784e-003</threshold>
            <left_val>6.9104200229048729e-003</left_val>
            <right_val>-0.6158251166343689</right_val></_></_>
        <_>
          <_>
            <feature>
              <rects>
                <_>
                  2 5 1 3 -1.</_>
                <_>
                  2 6 1 1 3.</_></rects>
              <tilted>0</tilted></feature>
            <threshold>-1.8421650165691972e-003</threshold>
            <left_val>-0.3173877894878388</left_val>
            <right_val>0.0383683294057846</right_val></_></_>
        <_>
          <_>
            <feature>
              <rects>
                <_>
                  17 6 4 6 -1.</_>
                <_>
                  15 8 4 2 3.</_></rects>
              <tilted>1</tilted></feature>
            <threshold>0.0492386706173420</threshold>
            <left_val>-0.0139463096857071</left_val>
            <right_val>0.2633120119571686</right_val></_></_>
        <_>
          <_>
            <feature>
              <rects>
                <_>
                  7 6 6 4 -1.</_>
                <_>
                  9 8 2 4 3.</_></rects>
              <tilted>1</tilted></feature>
            <threshold>-0.0104183303192258</threshold>
            <left_val>0.1582784950733185</left_val>
            <right_val>-0.0769180729985237</right_val></_></_>
        <_>
          <_>
            <feature>
              <rects>
                <_>
                  18 0 3 1 -1.</_>
                <_>
                  19 0 1 1 3.</_></rects>
              <tilted>0</tilted></feature>
            <threshold>1.2517640425357968e-004</threshold>
            <left_val>0.0988340601325035</left_val>
            <right_val>-0.1372532993555069</right_val></_></_>
        <_>
          <_>
            <feature>
              <rects>
                <_>
                  3 0 3 1 -1.</_>
                <_>
                  4 0 1 1 3.</_></rects>
              <tilted>0</tilted></feature>
            <threshold>-4.0809149504639208e-004</threshold>
            <left_val>-0.1654817014932632</left_val>
            <right_val>0.0746905878186226</right_val></_></_>
        <_>
          <_>
            <feature>
              <rects>
                <_>
                  20 6 4 4 -1.</_>
                <_>
                  19 7 4 2 2.</_></rects>
              <tilted>1</tilted></feature>
            <threshold>-5.1945559680461884e-003</threshold>
            <left_val>0.0998728722333908</left_val>
            <right_val>-0.0398893393576145</right_val></_></_>
        <_>
          <_>
            <feature>
              <rects>
                <_>
                  4 6 4 4 -1.</_>
                <_>
                  5 7 2 4 2.</_></rects>
              <tilted>1</tilted></feature>
            <threshold>-0.0120769804343581</threshold>
            <left_val>0.3104412853717804</left_val>
            <right_val>-0.0407409593462944</right_val></_></_>
        <_>
          <_>
            <feature>
              <rects>
                <_>
                  12 15 9 9 -1.</_>
                <_>
                  12 18 9 3 3.</_></rects>
              <tilted>0</tilted></feature>
            <threshold>-0.0325056090950966</threshold>
            <left_val>0.1135613024234772</left_val>
            <right_val>-0.0313500910997391</right_val></_></_>
        <_>
          <_>
            <feature>
              <rects>
                <_>
                  5 18 12 6 -1.</_>
                <_>
                  5 21 12 3 2.</_></rects>
              <tilted>0</tilted></feature>
            <threshold>-0.0302718300372362</threshold>
            <left_val>0.1944438964128494</left_val>
            <right_val>-0.0700761601328850</right_val></_></_>
        <_>
          <_>
            <feature>
              <rects>
                <_>
                  15 17 4 3 -1.</_>
                <_>
                  15 17 2 3 2.</_></rects>
              <tilted>1</tilted></feature>
            <threshold>-0.0104942396283150</threshold>
            <left_val>0.1419757008552551</left_val>
            <right_val>-0.0382762402296066</right_val></_></_>
        <_>
          <_>
            <feature>
              <rects>
                <_>
                  7 0 8 4 -1.</_>
                <_>
                  7 2 8 2 2.</_></rects>
              <tilted>0</tilted></feature>
            <threshold>0.0248651094734669</threshold>
            <left_val>-0.0319418385624886</left_val>
            <right_val>0.3887163102626801</right_val></_></_>
        <_>
          <_>
            <feature>
              <rects>
                <_>
                  21 5 2 4 -1.</_>
                <_>
                  21 5 1 4 2.</_></rects>
              <tilted>1</tilted></feature>
            <threshold>-0.0112771503627300</threshold>
            <left_val>-0.3594593107700348</left_val>
            <right_val>0.0179589390754700</right_val></_></_>
        <_>
          <_>
            <feature>
              <rects>
                <_>
                  3 5 4 2 -1.</_>
                <_>
                  3 5 4 1 2.</_></rects>
              <tilted>1</tilted></feature>
            <threshold>0.0105295898392797</threshold>
            <left_val>0.0310055799782276</left_val>
            <right_val>-0.3965078890323639</right_val></_></_>
        <_>
          <_>
            <feature>
              <rects>
                <_>
                  23 5 1 8 -1.</_>
                <_>
                  23 7 1 4 2.</_></rects>
              <tilted>0</tilted></feature>
            <threshold>-6.2736507970839739e-004</threshold>
            <left_val>0.0684267878532410</left_val>
            <right_val>-0.0560494698584080</right_val></_></_>
        <_>
          <_>
            <feature>
              <rects>
                <_>
                  0 5 1 8 -1.</_>
                <_>
                  0 7 1 4 2.</_></rects>
              <tilted>0</tilted></feature>
            <threshold>-6.3109962502494454e-004</threshold>
            <left_val>0.1336929947137833</left_val>
            <right_val>-0.1019786000251770</right_val></_></_>
        <_>
          <_>
            <feature>
              <rects>
                <_>
                  12 10 2 2 -1.</_>
                <_>
                  13 10 1 1 2.</_>
                <_>
                  12 11 1 1 2.</_></rects>
              <tilted>0</tilted></feature>
            <threshold>-1.1977290268987417e-003</threshold>
            <left_val>0.1425063014030457</left_val>
            <right_val>-0.0347953997552395</right_val></_></_>
        <_>
          <_>
            <feature>
              <rects>
                <_>
                  10 10 2 2 -1.</_>
                <_>
                  10 10 1 1 2.</_>
                <_>
                  11 11 1 1 2.</_></rects>
              <tilted>0</tilted></feature>
            <threshold>7.7688641613349319e-004</threshold>
            <left_val>-0.0715719982981682</left_val>
            <right_val>0.1792799979448319</right_val></_></_>
        <_>
          <_>
            <feature>
              <rects>
                <_>
                  19 17 2 2 -1.</_>
                <_>
                  20 17 1 1 2.</_>
                <_>
                  19 18 1 1 2.</_></rects>
              <tilted>0</tilted></feature>
            <threshold>-2.2540520876646042e-003</threshold>
            <left_val>-0.2691011130809784</left_val>
            <right_val>0.0177259407937527</right_val></_></_>
        <_>
          <_>
            <feature>
              <rects>
                <_>
                  3 17 2 2 -1.</_>
                <_>
                  3 17 1 1 2.</_>
                <_>
                  4 18 1 1 2.</_></rects>
              <tilted>0</tilted></feature>
            <threshold>-3.2395028974860907e-003</threshold>
            <left_val>-0.6745613217353821</left_val>
            <right_val>0.0171209108084440</right_val></_></_>
        <_>
          <_>
            <feature>
              <rects>
                <_>
                  9 22 10 2 -1.</_>
                <_>
                  9 23 10 1 2.</_></rects>
              <tilted>0</tilted></feature>
            <threshold>0.0375100001692772</threshold>
            <left_val>-9.9615622311830521e-003</left_val>
            <right_val>0.9539572000503540</right_val></_></_>
        <_>
          <_>
            <feature>
              <rects>
                <_>
                  10 17 3 5 -1.</_>
                <_>
                  11 17 1 5 3.</_></rects>
              <tilted>0</tilted></feature>
            <threshold>2.4149420205503702e-003</threshold>
            <left_val>-0.0722221806645393</left_val>
            <right_val>0.1518761962652206</right_val></_></_>
        <_>
          <_>
            <feature>
              <rects>
                <_>
                  11 20 3 3 -1.</_>
                <_>
                  12 21 1 1 9.</_></rects>
              <tilted>0</tilted></feature>
            <threshold>0.0138792200013995</threshold>
            <left_val>-0.0243334602564573</left_val>
            <right_val>0.3048670887947083</right_val></_></_>
        <_>
          <_>
            <feature>
              <rects>
                <_>
                  10 20 3 3 -1.</_>
                <_>
                  11 21 1 1 9.</_></rects>
              <tilted>0</tilted></feature>
            <threshold>-6.5129417926073074e-003</threshold>
            <left_val>0.2158751040697098</left_val>
            <right_val>-0.0547930411994457</right_val></_></_>
        <_>
          <_>
            <feature>
              <rects>
                <_>
                  13 3 4 8 -1.</_>
                <_>
                  14 3 2 8 2.</_></rects>
              <tilted>0</tilted></feature>
            <threshold>-2.5761360302567482e-003</threshold>
            <left_val>0.0931949764490128</left_val>
            <right_val>-0.0479368492960930</right_val></_></_>
        <_>
          <_>
            <feature>
              <rects>
                <_>
                  7 3 4 8 -1.</_>
                <_>
                  8 3 2 8 2.</_></rects>
              <tilted>0</tilted></feature>
            <threshold>-0.0164240803569555</threshold>
            <left_val>-0.7727537751197815</left_val>
            <right_val>0.0153446104377508</right_val></_></_>
        <_>
          <_>
            <feature>
              <rects>
                <_>
                  14 0 2 4 -1.</_>
                <_>
                  14 0 1 4 2.</_></rects>
              <tilted>0</tilted></feature>
            <threshold>4.3071410618722439e-003</threshold>
            <left_val>0.0119330799207091</left_val>
            <right_val>-0.2002044022083283</right_val></_></_>
        <_>
          <_>
            <feature>
              <rects>
                <_>
                  8 0 2 4 -1.</_>
                <_>
                  9 0 1 4 2.</_></rects>
              <tilted>0</tilted></feature>
            <threshold>2.5561049114912748e-003</threshold>
            <left_val>0.0452573895454407</left_val>
            <right_val>-0.2469529062509537</right_val></_></_>
        <_>
          <_>
            <feature>
              <rects>
                <_>
                  0 2 24 22 -1.</_>
                <_>
                  0 13 24 11 2.</_></rects>
              <tilted>0</tilted></feature>
            <threshold>0.0257623102515936</threshold>
            <left_val>0.0787845030426979</left_val>
            <right_val>-0.1446772068738937</right_val></_></_>
        <_>
          <_>
            <feature>
              <rects>
                <_>
                  3 0 18 21 -1.</_>
                <_>
                  9 7 6 7 9.</_></rects>
              <tilted>0</tilted></feature>
            <threshold>-0.3429434895515442</threshold>
            <left_val>0.2587096989154816</left_val>
            <right_val>-0.0432441383600235</right_val></_></_>
        <_>
          <_>
            <feature>
              <rects>
                <_>
                  13 8 2 3 -1.</_>
                <_>
                  12 9 2 1 3.</_></rects>
              <tilted>1</tilted></feature>
            <threshold>-0.0103556700050831</threshold>
            <left_val>0.2242566049098969</left_val>
            <right_val>-0.0135821504518390</right_val></_></_>
        <_>
          <_>
            <feature>
              <rects>
                <_>
                  11 8 3 2 -1.</_>
                <_>
                  12 9 1 2 3.</_></rects>
              <tilted>1</tilted></feature>
            <threshold>3.0196919105947018e-003</threshold>
            <left_val>-0.0743199586868286</left_val>
            <right_val>0.1708787977695465</right_val></_></_>
        <_>
          <_>
            <feature>
              <rects>
                <_>
                  6 0 13 22 -1.</_>
                <_>
                  6 11 13 11 2.</_></rects>
              <tilted>0</tilted></feature>
            <threshold>0.2314707040786743</threshold>
            <left_val>-0.0440797992050648</left_val>
            <right_val>0.2917974889278412</right_val></_></_>
        <_>
          <_>
            <feature>
              <rects>
                <_>
                  7 8 3 16 -1.</_>
                <_>
                  7 12 3 8 2.</_></rects>
              <tilted>0</tilted></feature>
            <threshold>0.0282660294324160</threshold>
            <left_val>0.0465464890003204</left_val>
            <right_val>-0.2599214017391205</right_val></_></_>
        <_>
          <_>
            <feature>
              <rects>
                <_>
                  11 14 4 7 -1.</_>
                <_>
                  12 14 2 7 2.</_></rects>
              <tilted>0</tilted></feature>
            <threshold>3.3920910209417343e-003</threshold>
            <left_val>-0.0518806688487530</left_val>
            <right_val>0.1024378016591072</right_val></_></_>
        <_>
          <_>
            <feature>
              <rects>
                <_>
                  0 0 24 1 -1.</_>
                <_>
                  6 0 12 1 2.</_></rects>
              <tilted>0</tilted></feature>
            <threshold>3.7139749620109797e-003</threshold>
            <left_val>-0.1195570975542069</left_val>
            <right_val>0.0971307978034019</right_val></_></_>
        <_>
          <_>
            <feature>
              <rects>
                <_>
                  8 1 8 20 -1.</_>
                <_>
                  8 6 8 10 2.</_></rects>
              <tilted>0</tilted></feature>
            <threshold>0.1284745931625366</threshold>
            <left_val>-0.0342419482767582</left_val>
            <right_val>0.3437133133411408</right_val></_></_>
        <_>
          <_>
            <feature>
              <rects>
                <_>
                  0 18 3 3 -1.</_>
                <_>
                  1 18 1 3 3.</_></rects>
              <tilted>0</tilted></feature>
            <threshold>-1.5832179924473166e-003</threshold>
            <left_val>0.1490927934646606</left_val>
            <right_val>-0.0716752111911774</right_val></_></_>
        <_>
          <_>
            <feature>
              <rects>
                <_>
                  10 12 11 3 -1.</_>
                <_>
                  10 13 11 1 3.</_></rects>
              <tilted>0</tilted></feature>
            <threshold>0.0390314012765884</threshold>
            <left_val>1.4243490295484662e-003</left_val>
            <right_val>-0.9999877214431763</right_val></_></_>
        <_>
          <_>
            <feature>
              <rects>
                <_>
                  3 12 11 3 -1.</_>
                <_>
                  3 13 11 1 3.</_></rects>
              <tilted>0</tilted></feature>
            <threshold>8.6581390351057053e-003</threshold>
            <left_val>-0.0510074198246002</left_val>
            <right_val>0.2193520069122315</right_val></_></_>
        <_>
          <_>
            <feature>
              <rects>
                <_>
                  17 7 2 2 -1.</_>
                <_>
                  18 7 1 1 2.</_>
                <_>
                  17 8 1 1 2.</_></rects>
              <tilted>0</tilted></feature>
            <threshold>-4.1521308012306690e-003</threshold>
            <left_val>-0.8729885816574097</left_val>
            <right_val>8.5977585986256599e-003</right_val></_></_>
        <_>
          <_>
            <feature>
              <rects>
                <_>
                  5 7 2 2 -1.</_>
                <_>
                  5 7 1 1 2.</_>
                <_>
                  6 8 1 1 2.</_></rects>
              <tilted>0</tilted></feature>
            <threshold>-2.7937609702348709e-003</threshold>
            <left_val>-0.6211640238761902</left_val>
            <right_val>0.0159367807209492</right_val></_></_>
        <_>
          <_>
            <feature>
              <rects>
                <_>
                  19 19 2 3 -1.</_>
                <_>
                  19 20 2 1 3.</_></rects>
              <tilted>0</tilted></feature>
            <threshold>0.0110754799097776</threshold>
            <left_val>3.6759369540959597e-003</left_val>
            <right_val>-0.8288593888282776</right_val></_></_>
        <_>
          <_>
            <feature>
              <rects>
                <_>
                  10 9 4 2 -1.</_>
                <_>
                  10 9 4 1 2.</_></rects>
              <tilted>1</tilted></feature>
            <threshold>-7.4420440942049026e-003</threshold>
            <left_val>0.2612836062908173</left_val>
            <right_val>-0.0404845103621483</right_val></_></_>
        <_>
          <_>
            <feature>
              <rects>
                <_>
                  18 0 3 1 -1.</_>
                <_>
                  19 0 1 1 3.</_></rects>
              <tilted>0</tilted></feature>
            <threshold>-2.3112029884941876e-004</threshold>
            <left_val>-0.1107574999332428</left_val>
            <right_val>0.0599552206695080</right_val></_></_>
        <_>
          <_>
            <feature>
              <rects>
                <_>
                  11 10 2 2 -1.</_>
                <_>
                  11 10 1 1 2.</_>
                <_>
                  12 11 1 1 2.</_></rects>
              <tilted>0</tilted></feature>
            <threshold>7.6582678593695164e-004</threshold>
            <left_val>-0.0622150190174580</left_val>
            <right_val>0.1636393964290619</right_val></_></_>
        <_>
          <_>
            <feature>
              <rects>
                <_>
                  18 0 3 1 -1.</_>
                <_>
                  19 0 1 1 3.</_></rects>
              <tilted>0</tilted></feature>
            <threshold>2.7145829517394304e-004</threshold>
            <left_val>0.0484272502362728</left_val>
            <right_val>-0.0905534476041794</right_val></_></_>
        <_>
          <_>
            <feature>
              <rects>
                <_>
                  2 15 13 9 -1.</_>
                <_>
                  2 18 13 3 3.</_></rects>
              <tilted>0</tilted></feature>
            <threshold>0.1218013018369675</threshold>
            <left_val>-0.0189216807484627</left_val>
            <right_val>0.5791081190109253</right_val></_></_>
        <_>
          <_>
            <feature>
              <rects>
                <_>
                  19 19 2 3 -1.</_>
                <_>
                  19 20 2 1 3.</_></rects>
              <tilted>0</tilted></feature>
            <threshold>-0.0119852004572749</threshold>
            <left_val>-0.7479246854782105</left_val>
            <right_val>6.2220799736678600e-003</right_val></_></_>
        <_>
          <_>
            <feature>
              <rects>
                <_>
                  3 19 2 3 -1.</_>
                <_>
                  3 20 2 1 3.</_></rects>
              <tilted>0</tilted></feature>
            <threshold>5.3574820049107075e-003</threshold>
            <left_val>0.0253613702952862</left_val>
            <right_val>-0.4053092896938324</right_val></_></_>
        <_>
          <_>
            <feature>
              <rects>
                <_>
                  13 17 3 3 -1.</_>
                <_>
                  14 17 1 3 3.</_></rects>
              <tilted>0</tilted></feature>
            <threshold>-1.8932030070573092e-003</threshold>
            <left_val>0.0720416828989983</left_val>
            <right_val>-0.0388637110590935</right_val></_></_>
        <_>
          <_>
            <feature>
              <rects>
                <_>
                  4 15 8 3 -1.</_>
                <_>
                  4 16 8 1 3.</_></rects>
              <tilted>0</tilted></feature>
            <threshold>-0.0196657907217741</threshold>
            <left_val>-0.7206770181655884</left_val>
            <right_val>0.0139370895922184</right_val></_></_>
        <_>
          <_>
            <feature>
              <rects>
                <_>
                  7 15 13 2 -1.</_>
                <_>
                  7 16 13 1 2.</_></rects>
              <tilted>0</tilted></feature>
            <threshold>-8.5625657811760902e-003</threshold>
            <left_val>0.1959047019481659</left_val>
            <right_val>-0.0435456894338131</right_val></_></_>
        <_>
          <_>
            <feature>
              <rects>
                <_>
                  7 5 12 3 -1.</_>
                <_>
                  11 9 4 3 3.</_></rects>
              <tilted>1</tilted></feature>
            <threshold>0.0893218964338303</threshold>
            <left_val>0.0278995297849178</left_val>
            <right_val>-0.3970435857772827</right_val></_></_>
        <_>
          <_>
            <feature>
              <rects>
                <_>
                  12 11 1 6 -1.</_>
                <_>
                  12 14 1 3 2.</_></rects>
              <tilted>0</tilted></feature>
            <threshold>0.0115287797525525</threshold>
            <left_val>6.9042020477354527e-003</left_val>
            <right_val>-0.4606949090957642</right_val></_></_>
        <_>
          <_>
            <feature>
              <rects>
                <_>
                  8 18 3 1 -1.</_>
                <_>
                  9 18 1 1 3.</_></rects>
              <tilted>0</tilted></feature>
            <threshold>1.5098280273377895e-003</threshold>
            <left_val>-0.0536094903945923</left_val>
            <right_val>0.1955723017454147</right_val></_></_>
        <_>
          <_>
            <feature>
              <rects>
                <_>
                  17 0 3 18 -1.</_>
                <_>
                  18 0 1 18 3.</_></rects>
              <tilted>0</tilted></feature>
            <threshold>-0.0226679109036922</threshold>
            <left_val>-0.5350646972656250</left_val>
            <right_val>0.0143128102645278</right_val></_></_>
        <_>
          <_>
            <feature>
              <rects>
                <_>
                  6 7 2 2 -1.</_>
                <_>
                  6 7 1 1 2.</_>
                <_>
                  7 8 1 1 2.</_></rects>
              <tilted>0</tilted></feature>
            <threshold>-3.5101838875561953e-003</threshold>
            <left_val>-0.7405275702476502</left_val>
            <right_val>0.0123957600444555</right_val></_></_>
        <_>
          <_>
            <feature>
              <rects>
                <_>
                  21 8 2 6 -1.</_>
                <_>
                  21 10 2 2 3.</_></rects>
              <tilted>0</tilted></feature>
            <threshold>3.8637490943074226e-003</threshold>
            <left_val>-0.0373861603438854</left_val>
            <right_val>0.0895312726497650</right_val></_></_>
        <_>
          <_>
            <feature>
              <rects>
                <_>
                  1 20 12 4 -1.</_>
                <_>
                  1 20 6 2 2.</_>
                <_>
                  7 22 6 2 2.</_></rects>
              <tilted>0</tilted></feature>
            <threshold>8.2384310662746429e-003</threshold>
            <left_val>-0.0614649616181850</left_val>
            <right_val>0.1605934947729111</right_val></_></_>
        <_>
          <_>
            <feature>
              <rects>
                <_>
                  17 0 3 18 -1.</_>
                <_>
                  18 0 1 18 3.</_></rects>
              <tilted>0</tilted></feature>
            <threshold>0.0136922402307391</threshold>
            <left_val>0.0238181501626968</left_val>
            <right_val>-0.2762585878372192</right_val></_></_>
        <_>
          <_>
            <feature>
              <rects>
                <_>
                  4 0 7 6 -1.</_>
                <_>
                  4 2 7 2 3.</_></rects>
              <tilted>0</tilted></feature>
            <threshold>0.0146526796743274</threshold>
            <left_val>-0.0483450405299664</left_val>
            <right_val>0.2230360060930252</right_val></_></_>
        <_>
          <_>
            <feature>
              <rects>
                <_>
                  17 3 1 2 -1.</_>
                <_>
                  17 3 1 1 2.</_></rects>
              <tilted>1</tilted></feature>
            <threshold>-3.1011870596557856e-003</threshold>
            <left_val>0.1640947014093399</left_val>
            <right_val>-0.0206290204077959</right_val></_></_>
        <_>
          <_>
            <feature>
              <rects>
                <_>
                  7 3 2 1 -1.</_>
                <_>
                  7 3 1 1 2.</_></rects>
              <tilted>1</tilted></feature>
            <threshold>4.4755209237337112e-003</threshold>
            <left_val>0.0188132692128420</left_val>
            <right_val>-0.6322597265243530</right_val></_></_>
        <_>
          <_>
            <feature>
              <rects>
                <_>
                  16 0 4 18 -1.</_>
                <_>
                  17 0 2 18 2.</_></rects>
              <tilted>0</tilted></feature>
            <threshold>0.0323240794241428</threshold>
            <left_val>-8.0021638423204422e-003</left_val>
            <right_val>0.4864454865455627</right_val></_></_>
        <_>
          <_>
            <feature>
              <rects>
                <_>
                  4 0 4 18 -1.</_>
                <_>
                  5 0 2 18 2.</_></rects>
              <tilted>0</tilted></feature>
            <threshold>-0.0160829499363899</threshold>
            <left_val>-0.3664261102676392</left_val>
            <right_val>0.0304834395647049</right_val></_></_>
        <_>
          <_>
            <feature>
              <rects>
                <_>
                  15 16 8 2 -1.</_>
                <_>
                  17 16 4 2 2.</_></rects>
              <tilted>0</tilted></feature>
            <threshold>-5.8506019413471222e-003</threshold>
            <left_val>0.1237583979964256</left_val>
            <right_val>-0.0388466008007526</right_val></_></_>
        <_>
          <_>
            <feature>
              <rects>
                <_>
                  1 16 8 2 -1.</_>
                <_>
                  3 16 4 2 2.</_></rects>
              <tilted>0</tilted></feature>
            <threshold>-0.0135824000462890</threshold>
            <left_val>0.4043281972408295</left_val>
            <right_val>-0.0279691293835640</right_val></_></_>
        <_>
          <_>
            <feature>
              <rects>
                <_>
                  18 22 3 1 -1.</_>
                <_>
                  19 22 1 1 3.</_></rects>
              <tilted>0</tilted></feature>
            <threshold>4.3133928556926548e-004</threshold>
            <left_val>0.0458141602575779</left_val>
            <right_val>-0.0790100917220116</right_val></_></_>
        <_>
          <_>
            <feature>
              <rects>
                <_>
                  11 11 1 6 -1.</_>
                <_>
                  11 14 1 3 2.</_></rects>
              <tilted>0</tilted></feature>
            <threshold>-5.4679848253726959e-003</threshold>
            <left_val>0.2195180058479309</left_val>
            <right_val>-0.0473720096051693</right_val></_></_>
        <_>
          <_>
            <feature>
              <rects>
                <_>
                  6 9 18 10 -1.</_>
                <_>
                  6 14 18 5 2.</_></rects>
              <tilted>0</tilted></feature>
            <threshold>-0.1569693982601166</threshold>
            <left_val>-0.3564131855964661</left_val>
            <right_val>0.0279520191252232</right_val></_></_>
        <_>
          <_>
            <feature>
              <rects>
                <_>
                  5 5 14 4 -1.</_>
                <_>
                  5 6 14 2 2.</_></rects>
              <tilted>0</tilted></feature>
            <threshold>0.0101820295676589</threshold>
            <left_val>-0.0505758710205555</left_val>
            <right_val>0.2136718928813934</right_val></_></_>
        <_>
          <_>
            <feature>
              <rects>
                <_>
                  0 0 24 10 -1.</_>
                <_>
                  0 5 24 5 2.</_></rects>
              <tilted>0</tilted></feature>
            <threshold>-0.0803109928965569</threshold>
            <left_val>0.1755848973989487</left_val>
            <right_val>-0.0699319615960121</right_val></_></_>
        <_>
          <_>
            <feature>
              <rects>
                <_>
                  5 4 7 3 -1.</_>
                <_>
                  5 5 7 1 3.</_></rects>
              <tilted>0</tilted></feature>
            <threshold>-0.0104847298935056</threshold>
            <left_val>-0.5266742110252380</left_val>
            <right_val>0.0217015799134970</right_val></_></_>
        <_>
          <_>
            <feature>
              <rects>
                <_>
                  3 3 19 3 -1.</_>
                <_>
                  3 4 19 1 3.</_></rects>
              <tilted>0</tilted></feature>
            <threshold>-0.0156188197433949</threshold>
            <left_val>-0.3400127887725830</left_val>
            <right_val>0.0194357298314571</right_val></_></_>
        <_>
          <_>
            <feature>
              <rects>
                <_>
                  12 2 5 4 -1.</_>
                <_>
                  11 3 5 2 2.</_></rects>
              <tilted>1</tilted></feature>
            <threshold>-0.0226019509136677</threshold>
            <left_val>-0.6389150023460388</left_val>
            <right_val>0.0149776795879006</right_val></_></_>
        <_>
          <_>
            <feature>
              <rects>
                <_>
                  3 8 19 3 -1.</_>
                <_>
                  3 9 19 1 3.</_></rects>
              <tilted>0</tilted></feature>
            <threshold>0.0160059295594692</threshold>
            <left_val>-0.0330566391348839</left_val>
            <right_val>0.2963640987873077</right_val></_></_>
        <_>
          <_>
            <feature>
              <rects>
                <_>
                  9 16 4 3 -1.</_>
                <_>
                  9 17 4 1 3.</_></rects>
              <tilted>0</tilted></feature>
            <threshold>-0.0127275902777910</threshold>
            <left_val>-0.8652979731559753</left_val>
            <right_val>0.0118049895390868</right_val></_></_>
        <_>
          <_>
            <feature>
              <rects>
                <_>
                  6 3 17 4 -1.</_>
                <_>
                  6 4 17 2 2.</_></rects>
              <tilted>0</tilted></feature>
            <threshold>0.0201650094240904</threshold>
            <left_val>-0.0170817505568266</left_val>
            <right_val>0.2256571948528290</right_val></_></_>
        <_>
          <_>
            <feature>
              <rects>
                <_>
                  1 3 17 4 -1.</_>
                <_>
                  1 4 17 2 2.</_></rects>
              <tilted>0</tilted></feature>
            <threshold>-8.3095645532011986e-003</threshold>
            <left_val>0.2057217955589294</left_val>
            <right_val>-0.0563901588320732</right_val></_></_>
        <_>
          <_>
            <feature>
              <rects>
                <_>
                  20 3 4 1 -1.</_>
                <_>
                  21 3 2 1 2.</_></rects>
              <tilted>0</tilted></feature>
            <threshold>-5.8109988458454609e-004</threshold>
            <left_val>-0.1267284005880356</left_val>
            <right_val>0.0529855191707611</right_val></_></_>
        <_>
          <_>
            <feature>
              <rects>
                <_>
                  10 6 2 4 -1.</_>
                <_>
                  10 6 1 2 2.</_>
                <_>
                  11 8 1 2 2.</_></rects>
              <tilted>0</tilted></feature>
            <threshold>6.0540140839293599e-004</threshold>
            <left_val>-0.0833643898367882</left_val>
            <right_val>0.1286330074071884</right_val></_></_>
        <_>
          <_>
            <feature>
              <rects>
                <_>
                  20 3 4 1 -1.</_>
                <_>
                  21 3 2 1 2.</_></rects>
              <tilted>0</tilted></feature>
            <threshold>7.9671212006360292e-004</threshold>
            <left_val>0.0461655482649803</left_val>
            <right_val>-0.1436783969402313</right_val></_></_>
        <_>
          <_>
            <feature>
              <rects>
                <_>
                  7 12 2 2 -1.</_>
                <_>
                  7 12 1 1 2.</_>
                <_>
                  8 13 1 1 2.</_></rects>
              <tilted>0</tilted></feature>
            <threshold>7.0939451688900590e-004</threshold>
            <left_val>-0.0656900107860565</left_val>
            <right_val>0.1497755944728851</right_val></_></_>
        <_>
          <_>
            <feature>
              <rects>
                <_>
                  20 3 2 1 -1.</_>
                <_>
                  20 3 1 1 2.</_></rects>
              <tilted>0</tilted></feature>
            <threshold>3.5294469853397459e-005</threshold>
            <left_val>-0.0735034868121147</left_val>
            <right_val>0.0684288963675499</right_val></_></_>
        <_>
          <_>
            <feature>
              <rects>
                <_>
                  1 20 7 4 -1.</_>
                <_>
                  1 21 7 2 2.</_></rects>
              <tilted>0</tilted></feature>
            <threshold>0.0216367505490780</threshold>
            <left_val>-0.0161588098853827</left_val>
            <right_val>0.6107172966003418</right_val></_></_>
        <_>
          <_>
            <feature>
              <rects>
                <_>
                  17 8 4 2 -1.</_>
                <_>
                  19 8 2 1 2.</_>
                <_>
                  17 9 2 1 2.</_></rects>
              <tilted>0</tilted></feature>
            <threshold>-1.3404140190687031e-004</threshold>
            <left_val>-0.0543378815054893</left_val>
            <right_val>0.0537530817091465</right_val></_></_>
        <_>
          <_>
            <feature>
              <rects>
                <_>
                  4 2 15 4 -1.</_>
                <_>
                  3 3 15 2 2.</_></rects>
              <tilted>1</tilted></feature>
            <threshold>-0.0574091710150242</threshold>
            <left_val>-1.</left_val>
            <right_val>9.0652639046311378e-003</right_val></_></_>
        <_>
          <_>
            <feature>
              <rects>
                <_>
                  23 3 1 3 -1.</_>
                <_>
                  23 4 1 1 3.</_></rects>
              <tilted>0</tilted></feature>
            <threshold>2.6505679124966264e-004</threshold>
            <left_val>0.0603916198015213</left_val>
            <right_val>-0.1239394992589951</right_val></_></_>
        <_>
          <_>
            <feature>
              <rects>
                <_>
                  4 1 9 1 -1.</_>
                <_>
                  7 4 3 1 3.</_></rects>
              <tilted>1</tilted></feature>
            <threshold>-0.0218659006059170</threshold>
            <left_val>0.4055753946304321</left_val>
            <right_val>-0.0249873008579016</right_val></_></_>
        <_>
          <_>
            <feature>
              <rects>
                <_>
                  11 2 9 1 -1.</_>
                <_>
                  14 2 3 1 3.</_></rects>
              <tilted>0</tilted></feature>
            <threshold>-0.0173041801899672</threshold>
            <left_val>0.4623549878597260</left_val>
            <right_val>-3.2288050279021263e-003</right_val></_></_>
        <_>
          <_>
            <feature>
              <rects>
                <_>
                  4 2 9 1 -1.</_>
                <_>
                  7 2 3 1 3.</_></rects>
              <tilted>0</tilted></feature>
            <threshold>-0.0118392901495099</threshold>
            <left_val>-0.6121035218238831</left_val>
            <right_val>0.0175616703927517</right_val></_></_>
        <_>
          <_>
            <feature>
              <rects>
                <_>
                  7 0 10 3 -1.</_>
                <_>
                  7 0 5 3 2.</_></rects>
              <tilted>0</tilted></feature>
            <threshold>0.0401054210960865</threshold>
            <left_val>0.0174967702478170</left_val>
            <right_val>-0.5635591745376587</right_val></_></_>
        <_>
          <_>
            <feature>
              <rects>
                <_>
                  6 1 12 4 -1.</_>
                <_>
                  6 3 12 2 2.</_></rects>
              <tilted>0</tilted></feature>
            <threshold>0.0272985398769379</threshold>
            <left_val>-0.0361815318465233</left_val>
            <right_val>0.3022493124008179</right_val></_></_></trees>
      <stage_threshold>-0.6855763792991638</stage_threshold>
      <parent>0</parent>
      <next>-1</next></_>
    <_>
      <trees>
        <_>
          <_>
            <feature>
              <rects>
                <_>
                  0 0 24 1 -1.</_>
                <_>
                  6 0 12 1 2.</_></rects>
              <tilted>0</tilted></feature>
            <threshold>3.6264650989323854e-003</threshold>
            <left_val>-0.1698437035083771</left_val>
            <right_val>0.1295055001974106</right_val></_></_>
        <_>
          <_>
            <feature>
              <rects>
                <_>
                  21 0 2 1 -1.</_>
                <_>
                  21 0 1 1 2.</_></rects>
              <tilted>0</tilted></feature>
            <threshold>1.0196770308539271e-003</threshold>
            <left_val>0.0280238892883062</left_val>
            <right_val>-0.1690033972263336</right_val></_></_>
        <_>
          <_>
            <feature>
              <rects>
                <_>
                  2 10 3 3 -1.</_>
                <_>
                  3 11 1 1 9.</_></rects>
              <tilted>0</tilted></feature>
            <threshold>3.9424849674105644e-003</threshold>
            <left_val>-0.0417155995965004</left_val>
            <right_val>0.2477596998214722</right_val></_></_>
        <_>
          <_>
            <feature>
              <rects>
                <_>
                  20 10 3 3 -1.</_>
                <_>
                  20 11 3 1 3.</_></rects>
              <tilted>0</tilted></feature>
            <threshold>-1.8225479871034622e-003</threshold>
            <left_val>0.1183457970619202</left_val>
            <right_val>-0.0633625835180283</right_val></_></_>
        <_>
          <_>
            <feature>
              <rects>
                <_>
                  1 10 3 3 -1.</_>
                <_>
                  1 11 3 1 3.</_></rects>
              <tilted>0</tilted></feature>
            <threshold>-2.6687080971896648e-003</threshold>
            <left_val>0.2426172047853470</left_val>
            <right_val>-0.0716683194041252</right_val></_></_>
        <_>
          <_>
            <feature>
              <rects>
                <_>
                  21 0 2 1 -1.</_>
                <_>
                  21 0 1 1 2.</_></rects>
              <tilted>0</tilted></feature>
            <threshold>2.5105789973167703e-005</threshold>
            <left_val>-0.1097130030393601</left_val>
            <right_val>0.0681455880403519</right_val></_></_>
        <_>
          <_>
            <feature>
              <rects>
                <_>
                  0 11 24 3 -1.</_>
                <_>
                  8 12 8 1 9.</_></rects>
              <tilted>0</tilted></feature>
            <threshold>0.0598703511059284</threshold>
            <left_val>-0.0379209406673908</left_val>
            <right_val>0.2099899947643280</right_val></_></_>
        <_>
          <_>
            <feature>
              <rects>
                <_>
                  10 13 12 2 -1.</_>
                <_>
                  16 13 6 1 2.</_>
                <_>
                  10 14 6 1 2.</_></rects>
              <tilted>0</tilted></feature>
            <threshold>9.7074070945382118e-003</threshold>
            <left_val>-0.0337921716272831</left_val>
            <right_val>0.2676323950290680</right_val></_></_>
        <_>
          <_>
            <feature>
              <rects>
                <_>
                  3 21 2 3 -1.</_>
                <_>
                  3 22 2 1 3.</_></rects>
              <tilted>0</tilted></feature>
            <threshold>2.0589120686054230e-003</threshold>
            <left_val>-0.0627280324697495</left_val>
            <right_val>0.2054473012685776</right_val></_></_>
        <_>
          <_>
            <feature>
              <rects>
                <_>
                  18 0 6 3 -1.</_>
                <_>
                  20 0 2 3 3.</_></rects>
              <tilted>0</tilted></feature>
            <threshold>-3.2664609607309103e-003</threshold>
            <left_val>-0.0667157918214798</left_val>
            <right_val>0.0394537597894669</right_val></_></_>
        <_>
          <_>
            <feature>
              <rects>
                <_>
                  1 0 2 1 -1.</_>
                <_>
                  2 0 1 1 2.</_></rects>
              <tilted>0</tilted></feature>
            <threshold>3.2202609872911125e-005</threshold>
            <left_val>-0.1368551999330521</left_val>
            <right_val>0.0861769318580627</right_val></_></_>
        <_>
          <_>
            <feature>
              <rects>
                <_>
                  21 0 3 1 -1.</_>
                <_>
                  22 0 1 1 3.</_></rects>
              <tilted>0</tilted></feature>
            <threshold>-2.4690330610610545e-004</threshold>
            <left_val>-0.1351646035909653</left_val>
            <right_val>0.0910300314426422</right_val></_></_>
        <_>
          <_>
            <feature>
              <rects>
                <_>
                  0 0 3 1 -1.</_>
                <_>
                  1 0 1 1 3.</_></rects>
              <tilted>0</tilted></feature>
            <threshold>-8.6869382357690483e-005</threshold>
            <left_val>-0.1346282064914703</left_val>
            <right_val>0.0970390513539314</right_val></_></_>
        <_>
          <_>
            <feature>
              <rects>
                <_>
                  11 9 3 1 -1.</_>
                <_>
                  12 9 1 1 3.</_></rects>
              <tilted>0</tilted></feature>
            <threshold>-1.3687580358237028e-003</threshold>
            <left_val>0.1694449037313461</left_val>
            <right_val>-0.0525039583444595</right_val></_></_>
        <_>
          <_>
            <feature>
              <rects>
                <_>
                  10 9 3 1 -1.</_>
                <_>
                  11 9 1 1 3.</_></rects>
              <tilted>0</tilted></feature>
            <threshold>-1.2701229425147176e-003</threshold>
            <left_val>0.2507291138172150</left_val>
            <right_val>-0.0683090314269066</right_val></_></_>
        <_>
          <_>
            <feature>
              <rects>
                <_>
                  9 21 12 3 -1.</_>
                <_>
                  9 22 12 1 3.</_></rects>
              <tilted>0</tilted></feature>
            <threshold>-5.0520771183073521e-003</threshold>
            <left_val>0.1050980985164642</left_val>
            <right_val>-0.0405147597193718</right_val></_></_>
        <_>
          <_>
            <feature>
              <rects>
                <_>
                  2 0 14 16 -1.</_>
                <_>
                  2 4 14 8 2.</_></rects>
              <tilted>0</tilted></feature>
            <threshold>0.0975017771124840</threshold>
            <left_val>-0.0526365600526333</left_val>
            <right_val>0.2201686948537827</right_val></_></_>
        <_>
          <_>
            <feature>
              <rects>
                <_>
                  10 2 12 2 -1.</_>
                <_>
                  10 3 12 1 2.</_></rects>
              <tilted>0</tilted></feature>
            <threshold>-0.0109086995944381</threshold>
            <left_val>0.2504133880138397</left_val>
            <right_val>-0.0172890592366457</right_val></_></_>
        <_>
          <_>
            <feature>
              <rects>
                <_>
                  2 14 3 2 -1.</_>
                <_>
                  3 14 1 2 3.</_></rects>
              <tilted>0</tilted></feature>
            <threshold>-5.1008531590923667e-004</threshold>
            <left_val>0.1120517998933792</left_val>
            <right_val>-0.0939108729362488</right_val></_></_>
        <_>
          <_>
            <feature>
              <rects>
                <_>
                  15 13 9 2 -1.</_>
                <_>
                  18 13 3 2 3.</_></rects>
              <tilted>0</tilted></feature>
            <threshold>-1.4116930542513728e-003</threshold>
            <left_val>0.0469793006777763</left_val>
            <right_val>-0.0367707088589668</right_val></_></_>
        <_>
          <_>
            <feature>
              <rects>
                <_>
                  0 13 9 2 -1.</_>
                <_>
                  3 13 3 2 3.</_></rects>
              <tilted>0</tilted></feature>
            <threshold>6.4189401455223560e-003</threshold>
            <left_val>-0.0710261017084122</left_val>
            <right_val>0.1530504971742630</right_val></_></_>
        <_>
          <_>
            <feature>
              <rects>
                <_>
                  14 0 2 1 -1.</_>
                <_>
                  14 0 1 1 2.</_></rects>
              <tilted>0</tilted></feature>
            <threshold>-4.6948771341703832e-004</threshold>
            <left_val>-0.1235435009002686</left_val>
            <right_val>0.0377181805670261</right_val></_></_>
        <_>
          <_>
            <feature>
              <rects>
                <_>
                  3 22 10 2 -1.</_>
                <_>
                  3 22 5 1 2.</_>
                <_>
                  8 23 5 1 2.</_></rects>
              <tilted>0</tilted></feature>
            <threshold>-7.7353441156446934e-003</threshold>
            <left_val>0.3074538111686707</left_val>
            <right_val>-0.0353659205138683</right_val></_></_>
        <_>
          <_>
            <feature>
              <rects>
                <_>
                  22 0 2 20 -1.</_>
                <_>
                  17 5 2 10 2.</_></rects>
              <tilted>1</tilted></feature>
            <threshold>0.1256960034370422</threshold>
            <left_val>-6.2174210324883461e-003</left_val>
            <right_val>0.2835726141929627</right_val></_></_>
        <_>
          <_>
            <feature>
              <rects>
                <_>
                  2 0 20 2 -1.</_>
                <_>
                  7 5 10 2 2.</_></rects>
              <tilted>1</tilted></feature>
            <threshold>-6.6240062005817890e-003</threshold>
            <left_val>0.1501505970954895</left_val>
            <right_val>-0.0790034905076027</right_val></_></_>
        <_>
          <_>
            <feature>
              <rects>
                <_>
                  12 11 1 12 -1.</_>
                <_>
                  12 11 1 6 2.</_></rects>
              <tilted>1</tilted></feature>
            <threshold>0.0165916103869677</threshold>
            <left_val>-0.0549560002982616</left_val>
            <right_val>0.0960123389959335</right_val></_></_>
        <_>
          <_>
            <feature>
              <rects>
                <_>
                  0 8 12 14 -1.</_>
                <_>
                  0 8 6 7 2.</_>
                <_>
                  6 15 6 7 2.</_></rects>
              <tilted>0</tilted></feature>
            <threshold>-0.0346836596727371</threshold>
            <left_val>0.1633290052413940</left_val>
            <right_val>-0.0820897966623306</right_val></_></_>
        <_>
          <_>
            <feature>
              <rects>
                <_>
                  18 5 6 4 -1.</_>
                <_>
                  17 6 6 2 2.</_></rects>
              <tilted>1</tilted></feature>
            <threshold>0.0125538799911737</threshold>
            <left_val>-0.0426068902015686</left_val>
            <right_val>0.2023161947727203</right_val></_></_>
        <_>
          <_>
            <feature>
              <rects>
                <_>
                  8 6 6 7 -1.</_>
                <_>
                  10 8 2 7 3.</_></rects>
              <tilted>1</tilted></feature>
            <threshold>-0.0115481195971370</threshold>
            <left_val>0.1457213014364243</left_val>
            <right_val>-0.0838801413774490</right_val></_></_>
        <_>
          <_>
            <feature>
              <rects>
                <_>
                  12 11 1 12 -1.</_>
                <_>
                  12 11 1 6 2.</_></rects>
              <tilted>1</tilted></feature>
            <threshold>0.0670915693044662</threshold>
            <left_val>1.7659279983490705e-003</left_val>
            <right_val>-0.8223267197608948</right_val></_></_>
        <_>
          <_>
            <feature>
              <rects>
                <_>
                  12 11 12 1 -1.</_>
                <_>
                  12 11 6 1 2.</_></rects>
              <tilted>1</tilted></feature>
            <threshold>0.0226630903780460</threshold>
            <left_val>-0.0581371411681175</left_val>
            <right_val>0.1824045032262802</right_val></_></_>
        <_>
          <_>
            <feature>
              <rects>
                <_>
                  8 11 9 3 -1.</_>
                <_>
                  11 12 3 1 9.</_></rects>
              <tilted>0</tilted></feature>
            <threshold>-0.0331236906349659</threshold>
            <left_val>0.2404571026563644</left_val>
            <right_val>-0.0278632007539272</right_val></_></_>
        <_>
          <_>
            <feature>
              <rects>
                <_>
                  6 0 3 2 -1.</_>
                <_>
                  7 0 1 2 3.</_></rects>
              <tilted>0</tilted></feature>
            <threshold>2.5303428992629051e-003</threshold>
            <left_val>0.0386145189404488</left_val>
            <right_val>-0.2849555909633637</right_val></_></_>
        <_>
          <_>
            <feature>
              <rects>
                <_>
                  14 10 5 3 -1.</_>
                <_>
                  14 11 5 1 3.</_></rects>
              <tilted>0</tilted></feature>
            <threshold>0.0109948702156544</threshold>
            <left_val>-0.0197999794036150</left_val>
            <right_val>0.3149658143520355</right_val></_></_>
        <_>
          <_>
            <feature>
              <rects>
                <_>
                  7 5 1 2 -1.</_>
                <_>
                  7 6 1 1 2.</_></rects>
              <tilted>0</tilted></feature>
            <threshold>-5.7076307712122798e-004</threshold>
            <left_val>0.1661522984504700</left_val>
            <right_val>-0.0646024122834206</right_val></_></_>
        <_>
          <_>
            <feature>
              <rects>
                <_>
                  14 0 2 1 -1.</_>
                <_>
                  14 0 1 1 2.</_></rects>
              <tilted>0</tilted></feature>
            <threshold>5.4932007333263755e-004</threshold>
            <left_val>0.0299749299883842</left_val>
            <right_val>-0.1068139970302582</right_val></_></_>
        <_>
          <_>
            <feature>
              <rects>
                <_>
                  9 22 3 2 -1.</_>
                <_>
                  9 23 3 1 2.</_></rects>
              <tilted>0</tilted></feature>
            <threshold>3.3385120332241058e-003</threshold>
            <left_val>-0.0442521087825298</left_val>
            <right_val>0.2414395958185196</right_val></_></_>
        <_>
          <_>
            <feature>
              <rects>
                <_>
                  13 8 2 2 -1.</_>
                <_>
                  14 8 1 1 2.</_>
                <_>
                  13 9 1 1 2.</_></rects>
              <tilted>0</tilted></feature>
            <threshold>-5.9591759927570820e-003</threshold>
            <left_val>-1.</left_val>
            <right_val>2.6845240499824286e-003</right_val></_></_>
        <_>
          <_>
            <feature>
              <rects>
                <_>
                  9 8 2 2 -1.</_>
                <_>
                  9 8 1 1 2.</_>
                <_>
                  10 9 1 1 2.</_></rects>
              <tilted>0</tilted></feature>
            <threshold>-5.7945441221818328e-004</threshold>
            <left_val>0.1666475981473923</left_val>
            <right_val>-0.0694885402917862</right_val></_></_>
        <_>
          <_>
            <feature>
              <rects>
                <_>
                  13 0 3 1 -1.</_>
                <_>
                  14 0 1 1 3.</_></rects>
              <tilted>0</tilted></feature>
            <threshold>-2.9025040566921234e-004</threshold>
            <left_val>-0.0845286101102829</left_val>
            <right_val>0.0459478981792927</right_val></_></_>
        <_>
          <_>
            <feature>
              <rects>
                <_>
                  6 14 4 2 -1.</_>
                <_>
                  6 14 2 1 2.</_>
                <_>
                  8 15 2 1 2.</_></rects>
              <tilted>0</tilted></feature>
            <threshold>1.8843209836632013e-003</threshold>
            <left_val>-0.0573249794542789</left_val>
            <right_val>0.1842776983976364</right_val></_></_>
        <_>
          <_>
            <feature>
              <rects>
                <_>
                  14 1 4 16 -1.</_>
                <_>
                  14 5 4 8 2.</_></rects>
              <tilted>0</tilted></feature>
            <threshold>-0.0119298798963428</threshold>
            <left_val>0.0632110536098480</left_val>
            <right_val>-0.0344757698476315</right_val></_></_>
        <_>
          <_>
            <feature>
              <rects>
                <_>
                  6 1 4 16 -1.</_>
                <_>
                  6 5 4 8 2.</_></rects>
              <tilted>0</tilted></feature>
            <threshold>-0.0700981169939041</threshold>
            <left_val>-0.7010759711265564</left_val>
            <right_val>0.0163640808314085</right_val></_></_>
        <_>
          <_>
            <feature>
              <rects>
                <_>
                  15 16 3 3 -1.</_>
                <_>
                  14 17 3 1 3.</_></rects>
              <tilted>1</tilted></feature>
            <threshold>-7.8666452318429947e-003</threshold>
            <left_val>0.1609424054622650</left_val>
            <right_val>-0.0376120582222939</right_val></_></_>
        <_>
          <_>
            <feature>
              <rects>
                <_>
                  4 2 1 2 -1.</_>
                <_>
                  4 2 1 1 2.</_></rects>
              <tilted>1</tilted></feature>
            <threshold>-7.2823917435016483e-005</threshold>
            <left_val>-0.1267396062612534</left_val>
            <right_val>0.0841927975416183</right_val></_></_>
        <_>
          <_>
            <feature>
              <rects>
                <_>
                  15 16 3 3 -1.</_>
                <_>
